digraph Tree {
node [shape=box, style="filled, rounded", color="black", fontname=helvetica] ;
edge [fontname=helvetica] ;
0 [label="petal length (cm) <= 2.45\ngini = 0.666\nsamples = 120\nvalue = [42, 39, 39]\nclass = setosa", fillcolor="#fefaf8"] ;
1 [label="gini = 0.0\nsamples = 42\nvalue = [42, 0, 0]\nclass = setosa", fillcolor="#e58139"] ;
0 -> 1 [labeldistance=2.5, labelangle=45, headlabel="True"] ;
2 [label="petal width (cm) <= 1.75\ngini = 0.5\nsamples = 78\nvalue = [0, 39, 39]\nclass = versicolor", fillcolor="#ffffff"] ;
0 -> 2 [labeldistance=2.5, labelangle=-45, headlabel="False"] ;
3 [label="petal length (cm) <= 5.45\ngini = 0.133\nsamples = 42\nvalue = [0, 39, 3]\nclass = versicolor", fillcolor="#48e78b"] ;
2 -> 3 ;
4 [label="sepal length (cm) <= 4.95\ngini = 0.093\nsamples = 41\nvalue = [0, 39, 2]\nclass = versicolor", fillcolor="#43e687"] ;
3 -> 4 ;
5 [label="gini = 0.0\nsamples = 1\nvalue = [0, 0, 1]\nclass = virginica", fillcolor="#8139e5"] ;
4 -> 5 ;
6 [label="gini = 0.049\nsamples = 40\nvalue = [0, 39, 1]\nclass = versicolor", fillcolor="#3ee684"] ;
4 -> 6 ;
7 [label="gini = 0.0\nsamples = 1\nvalue = [0, 0, 1]\nclass = virginica", fillcolor="#8139e5"] ;
3 -> 7 ;
8 [label="gini = 0.0\nsamples = 36\nvalue = [0, 0, 36]\nclass = virginica", fillcolor="#8139e5"] ;
2 -> 8 ;
}